FANN_FLO_2.1
num_layers=3
learning_rate=0.700000
connection_rate=1.000000
network_type=0
learning_momentum=0.000000
training_algorithm=2
train_error_function=1
train_stop_function=0
cascade_output_change_fraction=0.010000
quickprop_decay=-0.000100
quickprop_mu=1.750000
rprop_increase_factor=1.200000
rprop_decrease_factor=0.500000
rprop_delta_min=0.000000
rprop_delta_max=50.000000
rprop_delta_zero=0.100000
cascade_output_stagnation_epochs=12
cascade_candidate_change_fraction=0.010000
cascade_candidate_stagnation_epochs=12
cascade_max_out_epochs=150
cascade_min_out_epochs=50
cascade_max_cand_epochs=150
cascade_min_cand_epochs=50
cascade_num_candidate_groups=2
bit_fail_limit=3.49999994039535520000e-001
cascade_candidate_limit=1.00000000000000000000e+003
cascade_weight_multiplier=4.00000005960464480000e-001
cascade_activation_functions_count=10
cascade_activation_functions=3 5 7 8 10 11 14 15 16 17 
cascade_activation_steepnesses_count=4
cascade_activation_steepnesses=2.50000000000000000000e-001 5.00000000000000000000e-001 7.50000000000000000000e-001 1.00000000000000000000e+000 
layer_sizes=4 8 2 
scale_included=0
neurons (num_inputs, activation_function, activation_steepness)=(0, 0, 0.00000000000000000000e+000) (0, 0, 0.00000000000000000000e+000) (0, 0, 0.00000000000000000000e+000) (0, 0, 0.00000000000000000000e+000) (4, 5, 5.00000000000000000000e-001) (4, 5, 5.00000000000000000000e-001) (4, 5, 5.00000000000000000000e-001) (4, 5, 5.00000000000000000000e-001) (4, 5, 5.00000000000000000000e-001) (4, 5, 5.00000000000000000000e-001) (4, 5, 5.00000000000000000000e-001) (0, 5, 0.00000000000000000000e+000) (8, 5, 5.00000000000000000000e-001) (0, 5, 0.00000000000000000000e+000) 
connections (connected_to_neuron, weight)=(0, 1.95259436964988710000e-001) (1, 2.40697100758552550000e-001) (2, -1.09474658203125000000e+003) (3, 8.97559225559234620000e-002) (0, 1.07764795422554020000e-001) (1, -5.97191080451011660000e-002) (2, 8.54761840820312500000e+002) (3, 1.60737223923206330000e-002) (0, 1.32065594196319580000e-001) (1, 8.07472094893455510000e-002) (2, 8.54763671875000000000e+002) (3, 4.80083264410495760000e-002) (0, 5.45731306076049800000e+000) (1, 4.84073114395141600000e+000) (2, 8.54981933593750000000e+002) (3, -1.73173874616622920000e-001) (0, 2.57176905870437620000e-001) (1, 1.79375067353248600000e-001) (2, -1.09475988769531250000e+003) (3, 1.04489825665950780000e-001) (0, 2.30870723724365230000e-001) (1, 1.92387759685516360000e-001) (2, -1.09468835449218750000e+003) (3, 1.96509789675474170000e-002) (0, 7.24315717816352840000e-002) (1, -1.95396691560745240000e-002) (2, 8.54846923828125000000e+002) (3, 8.37016850709915160000e-002) (4, -4.41452312469482420000e+000) (5, 3.00021231174468990000e-001) (6, 1.16072826087474820000e-001) (7, 2.88064432144165040000e+000) (8, -3.52575635910034180000e+000) (9, -3.53496193885803220000e+000) (10, 2.01274111866950990000e-001) (11, 6.50419771671295170000e-001) 
